encog,BasicNetwork,java,3.3.0,1,1495629387702
[BASIC]
[BASIC:PARAMS]
[BASIC:NETWORK]
beginTraining=0
connectionLimit=0
contextTargetOffset=0,0,0
contextTargetSize=0,0,0
endTraining=2
hasContext=f
inputCount=6
layerCounts=1,6,7
layerFeedCounts=1,5,6
layerContextCount=0,0,0
layerIndex=0,1,7
output=0.4791756936,0.0000000584,0.0000000001,0.9998128594,0.9999999897,0.0000000548,1,25,15,0,1,0,0,1
outputCount=1
weightIndex=0,6,41
weights=0.5566457971,3.7747335853,0.4485465094,-0.2792490173,0.3352321422,-0.2525590438,0.3686224966,-1.6366280672,-0.2927149566,-0.5592477744,3.1137901437,3.2298298817,-0.7633063435,-0.0521777558,-1.3549517782,0.5619511206,-0.6569434265,2.3653905998,3.673970042,-0.4854310492,0.5907581015,-0.227303448,0.9949412917,-1.9547659053,3.3557683403,4.0524922393,-0.8211717461,0.2228266273,0.7298411228,-0.1002760268,1.5423360673,-2.4592932925,-2.8585593059,0.3276118805,-0.4890778158,-0.2462357798,0.7726627305,-0.343119479,0.3449854599,1.9104024636,-0.4551803952
biasActivation=0,1,1
[BASIC:ACTIVATION]
"org.encog.engine.network.activation.ActivationSigmoid"
"org.encog.engine.network.activation.ActivationSigmoid"
"org.encog.engine.network.activation.ActivationLinear"
